{"config":{"inputSize":4,"hiddenSize":8,"outputSize":1,"learningRate":0.01},"weights":{"inputHidden":[[-0.8794115264944838,0.6000928871091177,-0.790631942939464,-1.7151875656651294,1.7452573803652824,0.5296199440807617,-6.226883285836417,-0.4144765207311919],[-0.45885667277953524,0.5028828623039976,-0.3308630106735753,-1.150455914753594,0.6896346625294096,0.32750481247673274,-0.2969017842482572,-0.23483556609255596],[0.049738972081115336,0.054751693293670876,-0.39082208594494366,-0.7251628530413938,0.44556080385454483,0.3983683308062843,0.2404081406231931,-0.5104797810243558],[-0.47917816029207133,0.7047376189202045,-0.06556048523752095,0.06273722607017379,-0.2534002758362684,-0.1260663957381002,-0.19720651223492244,-0.6405420069885063]],"hiddenOutput":[[-1.2735811791910001],[1.5288745826757117],[-1.0517843702842216],[-3.4275400050920477],[3.985125040697319],[1.0307271994546463],[-4.405727453689353],[-0.6137261217174997]]},"biases":{"hidden":[0.3251355037282951,-0.413049654805571,0.20088680216047977,2.7702401493849456,-2.5167587567668233,-0.04750977079387445,0.06679947458858519,0.07226582385391467],"output":[0.27966291422315975]}}